{
  "json": {
    "type": "NeuralNetwork",
    "sizes": [784, 16, 16, 10],
    "layers": [
      { "weights": [], "biases": [] },
      {
        "weights": [
          [
            -0.04040849581360817, -0.006435069255530834, 0.06719828397035599,
            0.1471864879131317, -0.18910162150859833, -0.14961247146129608,
            0.12885966897010803, -0.12649616599082947, 0.10011995583772659,
            -0.21219764649868011, -0.07151541858911514, -0.08758410811424255,
            -0.08771450817584991, -0.07523380219936371, 0.0805722028017044,
            -0.06397666037082672, -0.02505851909518242, -0.1855907440185547,
            -0.24651461839675903, -0.1982007473707199, -0.19019192457199097,
            -0.00003095731881330721, 0.04777221009135246, -0.17593134939670563,
            0.1539645940065384, 0.14723747968673706, 0.09038971364498138,
            -0.10933053493499756, 0.11215588450431824, -0.16220171749591827,
            0.13664500415325165, -0.021051853895187378, -0.15595589578151703,
            0.02136271260678768, -0.13003411889076233, -0.03503561392426491,
            0.04755668342113495, -0.06676776707172394, 0.17832444608211517,
            0.18814679980278015, -0.20953570306301117, 0.05364682525396347,
            -0.07936125248670578, -0.2848542034626007, -0.082851842045784,
            -0.11099980771541595, -0.15403582155704498, -0.251424640417099,
            0.03669802099466324, 0.11711686849594116, -0.18269085884094238,
            0.0005846007261425257, 0.09334166347980499, 0.08658312261104584,
            0.19472329318523407, 0.06175315007567406, -0.03652140125632286,
            -0.13824154436588287, 0.1257578730583191, 0.10826120525598526,
            -0.1508055329322815, 0.1361733376979828, 0.025819087401032448,
            0.12393153458833694, -0.07308322936296463, -0.019208179786801338,
            -0.07986535131931305, -0.17493537068367004, -0.08526104688644409,
            -0.3724226951599121, -0.3452759087085724, -0.20848390460014343,
            -0.481847882270813, -0.2658574879169464, -0.3813294768333435,
            0.09211243689060211, -0.0884215459227562, -0.1320686936378479,
            0.11213211715221405, 0.01753252185881138, 0.044627029448747635,
            -0.07720346748828888, 0.09781631827354431, -0.19336476922035217,
            -0.15213584899902344, -0.08108124881982803, 0.03696667030453682,
            -0.06137240305542946, 0.07897177338600159, 0.014165283180773258,
            0.014873349107801914, 0.0954083651304245, 0.1195274069905281,
            -0.044468194246292114, 0.05499023199081421, 0.03027966059744358,
            0.531182587146759, 0.7536158561706543, 0.11002460867166519,
            -0.6070575714111328, 0.07189597934484482, -0.2788308262825012,
            -0.6068050265312195, -0.13826097548007965, 0.11105398088693619,
            -0.1405140906572342, -0.22224633395671844, -0.36480218172073364,
            -0.12207121402025223, -0.007391314022243023, 0.011548137292265892,
            -0.11947395652532578, 0.19765989482402802, 0.09137821942567825,
            0.12682777643203735, 0.11771082133054733, -0.07313978672027588,
            0.10294632613658905, 0.1653657704591751, -0.12000695616006851,
            0.1529705822467804, 0.12475551664829254, 0.043370671570301056,
            0.1075398251414299, 0.4155203700065613, 0.40006107091903687,
            0.053236767649650574, 0.24209493398666382, -0.4492013156414032,
            0.010081873275339603, 0.6512914896011353, -0.26527369022369385,
            0.11712777614593506, 0.10289495438337326, 0.009079093113541603,
            -0.11875845491886139, -0.1512947976589203, -0.07027324289083481,
            -0.07418907433748245, 0.10834231227636337, -0.09045008569955826,
            -0.007244525942951441, -0.013484550639986992, -0.04647350311279297,
            -0.0415373221039772, 0.08237010985612869, 0.12122141569852829,
            -0.1212155818939209, 0.23993201553821564, -0.10180175304412842,
            -0.3556263744831085, -0.061362750828266144, -0.35724714398384094,
            0.32619529962539673, 0.19077205657958984, 0.5098089575767517,
            -0.22797444462776184, 0.08462563902139664, 0.6430215239524841,
            0.29051756858825684, 0.1373833864927292, 0.4239514470100403,
            0.6247888803482056, 0.32051244378089905, 0.3238820433616638,
            -0.11995933949947357, -0.0913720354437828, -0.09039109200239182,
            -0.047874920070171356, 0.04201974347233772, 0.10667293518781662,
            0.12937378883361816, 0.18509337306022644, 0.42470961809158325,
            0.14919649064540863, -0.37890636920928955, 0.15613704919815063,
            0.14704282581806183, 0.0800878182053566, 0.2204117476940155,
            0.20775531232357025, 0.6811828017234802, 0.5780863165855408,
            0.45515692234039307, 0.010129236616194248, -0.0881449282169342,
            -0.02652420848608017, 0.6317145824432373, 0.27916449308395386,
            0.5825726389884949, 0.741417646408081, 0.46982142329216003,
            0.09985741972923279, 0.3077407777309418, 0.1226971372961998,
            0.01109219342470169, 0.19241374731063843, 0.07244861125946045,
            -0.18042884767055511, 0.178658589720726, 0.11647634208202362,
            0.14481103420257568, 0.2547042667865753, -0.3403991162776947,
            -0.19340325891971588, -0.02007969841361046, 0.35657909512519836,
            0.5450067520141602, 1.1451140642166138, 0.35215890407562256,
            -0.31225183606147766, -0.372559517621994, 0.032226480543613434,
            0.14965729415416718, 0.43944051861763, 0.43753209710121155,
            0.4086010158061981, 0.25001394748687744, -0.3034249246120453,
            -0.004837431944906712, 0.18984997272491455, -0.008668879047036171,
            -0.15858039259910583, -0.08777344226837158, -0.16299115121364594,
            0.07417046278715134, 0.10667888820171356, 0.3666324317455292,
            0.23485830426216125, -0.11587158590555191, 0.15768590569496155,
            0.03566013276576996, -0.29791712760925293, -0.17877303063869476,
            -0.03351621329784393, -0.03466121479868889, 0.7495179176330566,
            0.06908020377159119, 0.661225438117981, 0.7239594459533691,
            0.47782424092292786, 0.4086208641529083, 0.3823660612106323,
            -0.13327258825302124, -0.1066107526421547, -0.12637004256248474,
            -0.547841489315033, -0.22844882309436798, -0.04094293713569641,
            0.06465044617652893, 0.15782980620861053, 0.10284564644098282,
            -0.11813267320394516, -0.009159881621599197, 0.09438047558069229,
            0.31398823857307434, 0.3053814172744751, -0.044586148113012314,
            -0.21927358210086823, 0.22506442666053772, 0.028815850615501404,
            0.10870678722858429, -0.07619113475084305, -0.08750994503498077,
            -0.03788994252681732, -0.26648712158203125, 0.11113404482603073,
            0.38951364159584045, 0.36033621430397034, -0.19270318746566772,
            -0.31517887115478516, -0.191958948969841, 0.5009477734565735,
            -0.037199344485998154, -0.2711091935634613, 0.21934346854686737,
            0.42085590958595276, 0.08588241040706635, -0.08114548027515411,
            0.03521432727575302, 0.12713362276554108, -0.04896058142185211,
            0.3687708377838135, 0.29660865664482117, 0.41651371121406555,
            0.07825177907943726, 0.09455614537000656, 0.15592896938323975,
            -0.2107631266117096, -0.1906779706478119, -0.23413167893886566,
            -0.10360834002494812, 0.758330225944519, 0.42582231760025024,
            -0.5578089356422424, -0.31760910153388977, 0.20111966133117676,
            0.05394437536597252, 0.29755449295043945, -0.41754597425460815,
            0.540848433971405, 0.14747315645217896, 0.06711854785680771,
            0.27589964866638184, 0.4291963577270508, 0.28512680530548096,
            0.06966610997915268, 0.14997172355651855, -0.14336387813091278,
            -0.09641307592391968, 0.05662721395492554, 0.5062741637229919,
            0.41921937465667725, 0.1345769166946411, -0.23066258430480957,
            -0.23223614692687988, -0.1517682522535324, -0.024320855736732483,
            0.00838218443095684, -0.0833299532532692, -0.5239125490188599,
            0.15476416051387787, -0.2665243148803711, -0.5925369262695312,
            -0.04412181302905083, 0.29247385263442993, 0.4161984324455261,
            -0.10494919866323471, 0.09975117444992065, -0.3510015904903412,
            -0.6212924122810364, -0.2886101007461548, 0.16594000160694122,
            0.3465581238269806, 0.16278135776519775, 0.08094467222690582,
            -0.1665779948234558, 0.044880446046590805, 0.1859121322631836,
            0.4968886971473694, 0.21216146647930145, 0.4833947420120239,
            0.20865920186042786, -0.04841655492782593, 0.2925700843334198,
            -0.32013633847236633, 0.3383495509624481, -0.4402400255203247,
            -0.32620882987976074, -0.3443126082420349, -0.7172538638114929,
            -0.5984032154083252, -0.016616908833384514, -0.4916151165962219,
            -0.37584957480430603, 0.0019851180259138346, 0.06485939770936966,
            -0.45796439051628113, -0.46003907918930054, -0.0792582705616951,
            -0.016816437244415283, 0.03557378798723221, -0.023210885003209114,
            -0.03930065408349037, 0.11399020999670029, 0.22811143100261688,
            -0.07564172148704529, 0.2318878173828125, -0.16049347817897797,
            0.28292131423950195, 0.43124493956565857, 0.23806408047676086,
            -0.06258194893598557, -0.36640241742134094, -0.26312291622161865,
            -0.008039098232984543, -0.023745190352201462, -0.8264800310134888,
            -0.7412736415863037, -0.7947302460670471, 0.12374204397201538,
            -0.8833999633789062, -0.09141071885824203, -0.11418474465608597,
            0.2730429768562317, -0.037337642163038254, -0.15786486864089966,
            -0.35054901242256165, -0.05799642950296402, -0.10188163071870804,
            0.07011163234710693, -0.014400524087250233, 0.08689603209495544,
            -0.11006629467010498, -0.0007810018141753972, 0.2085537165403366,
            0.3213350474834442, 0.24936196208000183, -0.15050970017910004,
            -0.5142045617103577, -0.3154849708080292, 0.24301573634147644,
            0.086954765021801, -0.6920029520988464, -0.15599356591701508,
            -0.03303020820021629, -0.04994926229119301, -0.46866676211357117,
            -0.6746419072151184, -0.2663756012916565, -0.26650211215019226,
            0.01962975412607193, -0.16149570047855377, 0.748943030834198,
            0.03617554157972336, 0.1781909465789795, 0.2185955047607422,
            0.1794550120830536, -0.1556415855884552, -0.006575430743396282,
            -0.15961982309818268, 0.1745227426290512, 0.004720347002148628,
            -0.09305767714977264, 0.26698872447013855, -0.005064291413873434,
            -0.43736594915390015, -0.737828254699707, -0.3887968957424164,
            -0.17598551511764526, 0.13085921108722687, 0.026740754023194313,
            -0.3939325213432312, -0.8037981986999512, -0.8213512897491455,
            -0.5808535814285278, -0.4414197504520416, -0.12047044187784195,
            0.29014602303504944, 0.0995875671505928, 0.5914132595062256,
            0.11992526054382324, 0.02306290902197361, 0.038133591413497925,
            0.46600455045700073, -0.03212178498506546, -0.019934970885515213,
            0.18813051283359528, -0.024588821455836296, -0.0874982476234436,
            0.006068804766982794, 0.22144140303134918, 0.20674946904182434,
            -0.09365550428628922, -1.2471061944961548, -0.7625285983085632,
            -0.9153491258621216, -1.0223681926727295, -0.19132521748542786,
            -0.6368556022644043, -0.03375420346856117, 0.29075300693511963,
            -0.4112769365310669, -0.9768564701080322, -0.7591775059700012,
            0.35754066705703735, 0.5010761618614197, 0.4522746205329895,
            0.5189378261566162, 0.374625563621521, 0.13742107152938843,
            0.0880749523639679, 0.1935846209526062, -0.0025527069810777903,
            -0.00786958821117878, -0.0213180985301733, -0.08542852848768234,
            -0.08741667866706848, 0.08008883148431778, 0.40650737285614014,
            0.8058156371116638, 0.009350232779979706, -0.6569202542304993,
            -0.8214333057403564, -1.834924578666687, -2.188931941986084,
            -1.3158351182937622, -1.1536216735839844, -1.332216501235962,
            -1.1053013801574707, -1.1803827285766602, -0.962256908416748,
            -0.19342228770256042, 0.3119196593761444, 0.5391066074371338,
            0.1747213453054428, -0.08290193974971771, 0.30308106541633606,
            -0.07594173401594162, -0.2523297369480133, 0.0665723979473114,
            -0.1251966655254364, -0.1706666648387909, -0.0963253304362297,
            -0.11565791815519333, -0.07093381136655807, 0.23570579290390015,
            0.3700477182865143, 0.6171925663948059, -0.10733465850353241,
            -0.9122511148452759, -1.265443205833435, -1.3942052125930786,
            -1.5404596328735352, -1.8179699182510376, -1.978669285774231,
            -2.143768310546875, -2.1908111572265625, -0.8503456115722656,
            -0.4927006661891937, 0.4894639849662781, -0.047113917768001556,
            0.37428024411201477, -0.3321700096130371, 0.11737031489610672,
            0.43989166617393494, -0.2452245056629181, -0.1810920089483261,
            0.013222867622971535, -0.14446672797203064, 0.13827204704284668,
            -0.1884171962738037, -0.11424306780099869, 0.1438947319984436,
            -0.11785497516393661, 0.43166929483413696, 0.8229537606239319,
            -0.05887843668460846, -0.716604471206665, -0.666178286075592,
            -0.5119249224662781, -0.7762933373451233, -0.8944207429885864,
            -0.7482439875602722, -1.229709506034851, -0.5765045881271362,
            -0.04124704748392105, 0.9453401565551758, 0.4107307195663452,
            -0.15730871260166168, -0.03389133885502815, 0.035275887697935104,
            -0.09639693796634674, 0.2386007159948349, -0.2684648334980011,
            0.09168178588151932, -0.1420808732509613, -0.09079603105783463,
            0.13122223317623138, 0.025661027058959007, 0.01941978931427002,
            0.06196514517068863, 0.27652424573898315, 0.22598637640476227,
            0.6197265386581421, 0.3112719655036926, 0.18739759922027588,
            0.17336368560791016, 0.7009336352348328, 0.4059361517429352,
            0.16041962802410126, -0.0037421714514493942, 0.08669181168079376,
            0.7303680777549744, 0.8991925716400146, 0.33780911564826965,
            0.07656262814998627, 0.18620117008686066, 0.12183281779289246,
            0.026066793128848076, -0.19925875961780548, 0.7262862920761108,
            0.059551239013671875, 0.21768997609615326, -0.018829556182026863,
            0.021331965923309326, -0.015122419223189354, 0.0032245581969618797,
            -0.1009802520275116, -0.06568773835897446, 0.32671982049942017,
            0.45328089594841003, 0.38335156440734863, 0.42519763112068176,
            0.3071562945842743, 0.26938557624816895, -0.07028606534004211,
            0.12371107935905457, 0.09316929429769516, 0.3734493851661682,
            0.7203670740127563, 0.7229304313659668, 1.1220113039016724,
            1.0810185670852661, 0.4348330497741699, 0.3401845097541809,
            0.7297937870025635, 0.19086341559886932, 0.13772138953208923,
            0.4162510335445404, -0.015495194122195244, -0.25537362694740295,
            -0.18492646515369415, -0.029585592448711395, -0.11919091641902924,
            0.0396643728017807, 0.08213093876838684, -0.0536889024078846,
            0.1325756013393402, 0.37124261260032654, -0.029346823692321777,
            -0.18579180538654327, -0.06461276113986969, -0.1812351793050766,
            -0.12400467693805695, 0.49572324752807617, 0.08564028143882751,
            0.48248571157455444, 0.8892694711685181, 0.7242154479026794,
            -0.17304906249046326, 0.5484389066696167, 0.12835191190242767,
            0.059449173510074615, 0.4755571484565735, 1.101420521736145,
            -0.01731048710644245, -0.20878291130065918, 0.1717066466808319,
            0.0005649931845255196, -0.06374669075012207, -0.22044378519058228,
            -0.15767671167850494, 0.12819968163967133, -0.10220535099506378,
            0.17890693247318268, 0.1341913640499115, -0.006691472139209509,
            0.1534595787525177, 0.006420674733817577, 0.046158820390701294,
            -0.3241628110408783, -0.4657592177391052, 0.3665724992752075,
            0.5857746005058289, 0.5245450735092163, 0.1399870663881302,
            0.08574072271585464, 0.2547503709793091, -0.005132375750690699,
            -0.29078903794288635, 0.0012196365278214216, 0.4197354018688202,
            -0.24966198205947876, -0.3806934058666229, -0.18730512261390686,
            0.05623571202158928, -0.020684953778982162, 0.0707898885011673,
            -0.17424838244915009, -0.02032347582280636, 0.0681283101439476,
            0.18757356703281403, 0.14934296905994415, -0.1276424378156662,
            0.18788529932498932, 0.25356388092041016, 0.13086634874343872,
            0.5860939621925354, 1.130759358406067, 0.7803459763526917,
            0.6376066207885742, 0.7178736925125122, 0.375603049993515,
            0.44040173292160034, 0.27616992592811584, 0.31719014048576355,
            -0.07345262169837952, 0.1257641315460205, -0.02492240071296692,
            -0.3010422885417938, -0.22789889574050903, -0.3877072036266327,
            -0.005384587682783604, -0.2801027297973633, -0.31563061475753784,
            0.0810089036822319, -0.04573901370167732, 0.11705006659030914,
            0.15929213166236877, 0.12905296683311462, -0.16122259199619293,
            -0.013724923133850098, 0.1123504489660263, -0.02583223022520542,
            0.08441793918609619, 0.19459106028079987, 0.22248689830303192,
            0.3744445741176605, 0.6535941958427429, 1.0555932521820068,
            0.9691344499588013, 0.7763596773147583, 0.4199933707714081,
            0.3688605725765228, 0.3393389582633972, -0.08168057352304459,
            -0.07681260257959366, -0.06248163804411888, 0.04120612516999245,
            0.0664675310254097, -0.12788276374340057, -0.15533298254013062,
            0.07946185767650604, -0.15028753876686096, 0.09717696160078049,
            -0.013508791103959084, 0.12135949730873108, -0.046818025410175323,
            -0.06671842932701111, 0.059476088732481, -0.009848210960626602,
            -0.16999034583568573, 0.21176326274871826, -0.17239722609519958,
            -0.03610645607113838, -0.16408269107341766, -0.03402072563767433,
            0.2834027409553528, 0.2594541311264038, 0.2430652678012848,
            -0.03908008337020874, -0.09574440121650696, 0.2849265933036804,
            0.35363203287124634, 0.23061463236808777, 0.20925679802894592,
            0.2046828269958496, -0.07020982354879379, 0.07314427196979523,
            0.028786344453692436, -0.02468927949666977, -0.13613474369049072,
            -0.14737418293952942, -0.1810760796070099, 0.1647360473871231,
            -0.1741868555545807, 0.21119478344917297, 0.18393824994564056,
            0.1314924657344818, -0.12245044857263565, -0.05291246250271797,
            0.09899301081895828, -0.11252736300230026, -0.009540717117488384,
            0.1119309514760971, 0.18446126580238342, -0.08181234449148178,
            0.06506352126598358, 0.1795317679643631, 0.180320605635643,
            0.17936033010482788, 0.26061537861824036, -0.03326329588890076,
            0.10836302489042282, 0.20154863595962524, 0.0799001082777977,
            -0.11640416085720062, -0.18585598468780518, -0.19379183650016785,
            -0.05939843878149986, -0.11782387644052505, -0.08019208908081055,
            -0.18392600119113922
          ],
          [
            -0.02745938114821911, 0.0629335418343544, -0.010121524333953857,
            0.05025063082575798, 0.03598775342106819, 0.11210677027702332,
            0.07223242521286011, -0.1713436096906662, -0.003365633077919483,
            0.13753509521484375, -0.04856018349528313, -0.039615705609321594,
            0.18230555951595306, -0.04576071724295616, 0.1610952466726303,
            -0.03463313728570938, 0.15667623281478882, -0.12468154728412628,
            0.0033515177201479673, -0.1692434549331665, -0.20286482572555542,
            -0.02908511273562908, 0.13870549201965332, -0.0002378944627707824,
            -0.05949277803301811, 0.11042953282594681, 0.06169722229242325,
            -0.0895552933216095, 0.11326675117015839, -0.005929567385464907,
            -0.039374615997076035, 0.19975431263446808, 0.11845667660236359,
            -0.05259939283132553, -0.21103298664093018, -0.04530826583504677,
            0.00556808989495039, 0.005405085161328316, 0.23845387995243073,
            0.011797399260103703, -0.015305614098906517, 0.23232460021972656,
            0.06323905289173126, -0.22207608819007874, -0.06212987005710602,
            -0.04049266129732132, -0.05383910611271858, 0.1910918802022934,
            0.12856939435005188, -0.028429165482521057, 0.145022913813591,
            -0.04145115241408348, 0.024984300136566162, 0.12042663991451263,
            -0.12416624277830124, -0.10514847934246063, 0.04572800174355507,
            -0.06454823166131973, 0.13547851145267487, 0.12416153401136398,
            -0.11077923327684402, -0.0064981672912836075, -0.1738298535346985,
            0.23313112556934357, -0.3246431350708008, -0.18317539989948273,
            0.16805748641490936, -0.009313142858445644, -0.05862168222665787,
            -0.15982848405838013, -0.1966131329536438, 0.04135391116142273,
            0.023020457476377487, 0.02376803196966648, -0.31333357095718384,
            -0.27351948618888855, -0.3620099425315857, -0.1393374502658844,
            0.15892986953258514, -0.05844488739967346, 0.08016589283943176,
            0.1778625249862671, -0.20545423030853271, 0.11122198402881622,
            0.14329244196414948, 0.14972877502441406, 0.16185425221920013,
            0.055109258741140366, 0.06972568482160568, -0.07958313077688217,
            0.09922094643115997, 0.028748944401741028, -0.07773280888795853,
            0.03182997182011604, 0.11338040232658386, -0.3804742395877838,
            -0.5887429118156433, -0.2092873752117157, -0.35703280568122864,
            -0.32754847407341003, -0.08616689592599869, -0.5247213244438171,
            -0.8523477911949158, -0.627604603767395, -0.37876075506210327,
            -0.3936659097671509, -0.24811579287052155, -0.19026271998882294,
            -0.10393264144659042, 0.06790988892316818, 0.026923956349492073,
            -0.09866458922624588, 0.16409704089164734, -0.13742727041244507,
            -0.14964903891086578, -0.12667718529701233, -0.1292397826910019,
            -0.1682642549276352, -0.007514351978898048, -0.1539146900177002,
            -0.2199208289384842, 0.09161383658647537, -0.0643196776509285,
            -0.7057762742042542, -0.025050610303878784, 0.2807314991950989,
            0.4461515247821808, 0.012535220943391323, -0.2580126225948334,
            -0.004638041369616985, -0.4973023533821106, -0.31986168026924133,
            -0.14811497926712036, 0.2088036984205246, -0.11811666935682297,
            -0.36366528272628784, -0.21102674305438995, -0.1737678200006485,
            -0.12083350867033005, -0.21248607337474823, 0.08489681035280228,
            -0.06495548039674759, 0.1168956607580185, 0.13234516978263855,
            0.03733115643262863, -0.1030043363571167, 0.08682466298341751,
            -0.14833426475524902, -0.08781223744153976, -0.38522574305534363,
            -0.30688145756721497, 0.15184548497200012, 0.4163263142108917,
            0.03472445532679558, 0.08456137776374817, 0.3414674401283264,
            0.1023826152086258, 0.7052040100097656, 0.6854060888290405,
            0.18437521159648895, -0.29632413387298584, 0.061716433614492416,
            -0.47518518567085266, -0.6703362464904785, -0.2479899674654007,
            -0.3006970286369324, -0.18291078507900238, 0.10487320274114609,
            0.18607862293720245, 0.026842838153243065, 0.07389860600233078,
            -0.19472725689411163, -0.1029406264424324, -0.1219780445098877,
            -0.056766752153635025, -0.47529205679893494, 0.12118153274059296,
            -0.008491485379636288, -0.1610724776983261, -0.05280611291527748,
            -0.7347571849822998, -0.8009085655212402, 0.4301014542579651,
            0.5384551286697388, 0.03997721150517464, 0.436671644449234,
            0.8978623747825623, 0.09195319563150406, -0.2111588567495346,
            0.6055697202682495, 0.07065433263778687, 0.014543691650032997,
            -0.7261647582054138, -0.5094762444496155, -0.21593929827213287,
            -0.03134642168879509, 0.13409970700740814, -0.029925120994448662,
            -0.11694831401109695, -0.1337721347808838, 0.014691833406686783,
            0.11102321743965149, 0.08165314048528671, 0.09912330657243729,
            -0.43285995721817017, -0.2017621099948883, 0.39981362223625183,
            0.1580079048871994, 0.018865246325731277, 0.1583372801542282,
            0.1684892177581787, 0.579680860042572, 0.09199614822864532,
            -0.2682814300060272, 0.22811836004257202, 0.5320087671279907,
            -0.2351067215204239, 0.2873361110687256, 0.26485538482666016,
            -0.20125924050807953, -0.9593337774276733, -0.32105085253715515,
            -0.13496364653110504, 0.07872875779867172, 0.10420280694961548,
            0.25217047333717346, 0.03733792528510094, -0.11451216042041779,
            0.24615132808685303, -0.0792412981390953, -0.3375188410282135,
            0.009905473329126835, -0.21599255502223969, -0.554374098777771,
            0.16450068354606628, 0.6692308187484741, -0.2815548777580261,
            -0.1288355588912964, 0.1319049596786499, 1.1630425453186035,
            0.8595163822174072, 0.8291918635368347, 0.858799159526825,
            0.518002986907959, -0.30668720602989197, 0.1199384406208992,
            0.23974035680294037, 0.3801686763763428, -0.9785210490226746,
            -0.6904540061950684, -0.10361992567777634, -0.3436315357685089,
            -0.09247907251119614, 0.20261156558990479, -0.1243884265422821,
            -0.024781381711363792, 0.21225544810295105, -0.11755891889333725,
            -0.2991849482059479, -0.17189952731132507, -0.16746211051940918,
            -0.6511194705963135, -0.08466783165931702, -0.07591134309768677,
            -0.41033074259757996, -0.2010796219110489, 0.032397836446762085,
            -0.25075864791870117, 0.6818324327468872, 1.3962596654891968,
            1.3289082050323486, 0.5932480692863464, 0.5622618794441223,
            0.14687639474868774, 0.010793031193315983, 0.19208042323589325,
            -0.5733842253684998, -0.7107213139533997, -0.27871885895729065,
            0.08980251103639603, 0.1338108777999878, 0.07150720059871674,
            -0.0985386073589325, 0.1226530373096466, -0.014500414952635765,
            -0.12129247188568115, -0.5033130645751953, -0.7205828428268433,
            0.14012156426906586, -0.2525307536125183, -0.1390189230442047,
            -0.4459635317325592, -0.3878791630268097, -0.6892235279083252,
            -0.5095654129981995, -0.3216703534126282, -0.7405703067779541,
            0.8037673830986023, 0.8787059187889099, 0.38805967569351196,
            0.6024201512336731, 0.6293439269065857, 0.3300900161266327,
            -0.02255203016102314, -0.16219496726989746, -0.26341113448143005,
            -0.4301891326904297, 0.05810239911079407, 0.058400630950927734,
            -0.14686979353427887, 0.125105082988739, 0.010454162023961544,
            -0.22039897739887238, -0.3799852430820465, -0.7182347774505615,
            -0.6309146881103516, -0.5164982676506042, -0.5160362720489502,
            -0.31712496280670166, -0.18811805546283722, -0.34847599267959595,
            -0.2915543019771576, -0.8732544779777527, -1.4113247394561768,
            -0.535039484500885, 0.35244691371917725, 0.5959054231643677,
            -0.04689152166247368, 0.24017073214054108, 0.30168041586875916,
            0.5009375810623169, 0.10199736803770065, -0.19721382856369019,
            -0.4417983591556549, -0.3538757264614105, -0.019030284136533737,
            0.1256713718175888, 0.08608292788267136, -0.14348097145557404,
            0.21592162549495697, -0.31907427310943604, -0.029450036585330963,
            -0.6823289394378662, -0.48014920949935913, -0.5419391393661499,
            -0.40189218521118164, -0.746817946434021, -0.864905595779419,
            0.19168972969055176, -0.20078524947166443, -1.9656654596328735,
            -1.218042254447937, -0.6126736998558044, -0.02478228323161602,
            0.7636806964874268, 0.41307035088539124, 0.1197972372174263,
            -0.023289460688829422, 0.11183752864599228, 0.682041585445404,
            0.4650791585445404, 0.16393037140369415, -0.22998476028442383,
            -0.1067090779542923, -0.0762568935751915, -0.09443338960409164,
            0.04655619338154793, 0.12693935632705688, -0.188218355178833,
            0.313609778881073, -0.012291652150452137, -0.27976927161216736,
            -0.3262827396392822, -0.3706345558166504, -0.9461696147918701,
            -0.1268826723098755, -0.15825198590755463, -1.0641142129898071,
            -1.2578213214874268, -1.6215286254882812, -1.055757761001587,
            -0.02385837957262993, 0.2346400022506714, -0.2202170044183731,
            0.30276137590408325, 0.20450103282928467, 0.5594115257263184,
            0.048414092510938644, 0.06363574415445328, -0.2254849225282669,
            -0.009858783334493637, -0.04789094999432564, 0.10534246265888214,
            0.17422500252723694, -0.14517749845981598, 0.04974314197897911,
            0.145980566740036, 0.4627152979373932, 0.23000647127628326,
            0.2521165907382965, 0.21529455482959747, 0.004495980683714151,
            0.034940242767333984, 0.0033990347292274237, -0.28984498977661133,
            -0.11940386891365051, -0.7556567192077637, -0.9495220184326172,
            -1.4950804710388184, -0.3596568703651428, -0.38127708435058594,
            -0.19560007750988007, 0.357928603887558, -0.27841562032699585,
            0.349246084690094, -0.1681421548128128, -0.2945910096168518,
            -0.05594303831458092, 0.082529716193676, -0.17935845255851746,
            0.1726354956626892, -0.0817846730351448, 0.273481160402298,
            0.1332830935716629, 0.27604660391807556, 0.5645379424095154,
            -0.07472869753837585, -0.035284124314785004, 0.5557079315185547,
            0.20521703362464905, 0.30941373109817505, -0.6324765086174011,
            -0.33966296911239624, -0.6924886107444763, -1.0303364992141724,
            -0.9468435645103455, -0.4943455159664154, -0.1580582708120346,
            -0.03711976855993271, 0.11052611470222473, -0.05835533142089844,
            -0.20640034973621368, -0.056452520191669464, -0.25861117243766785,
            -0.4045729637145996, 0.20796743035316467, 0.004235086962580681,
            0.13809633255004883, 0.024333292618393898, -0.14246401190757751,
            -0.1411016881465912, 0.06772912293672562, 0.3499348759651184,
            0.3183116018772125, 0.7490109205245972, 0.5492426156997681,
            0.5961366891860962, -0.018669553101062775, 0.419312059879303,
            0.033325500786304474, -0.0506310798227787, -0.8350138068199158,
            -0.5892483592033386, -0.8425637483596802, -0.2527864873409271,
            -0.47348764538764954, -0.25979024171829224, 0.28307101130485535,
            -0.047430071979761124, -0.071576789021492, -0.07535037398338318,
            -0.57818204164505, -0.36289355158805847, 0.27124619483947754,
            0.037675611674785614, 0.10948006808757782, -0.045514561235904694,
            0.114305779337883, -0.04432898014783859, 0.20906396210193634,
            0.5792097449302673, 0.26983898878097534, 0.4268050193786621,
            0.4007933735847473, 0.32170814275741577, 0.4076044261455536,
            0.4302428364753723, 0.3442562520503998, -0.2680242955684662,
            -1.3272103071212769, -0.5899144411087036, -0.689365029335022,
            -0.2700272798538208, 0.4680285155773163, 0.3700448274612427,
            0.10929827392101288, -0.4543819725513458, -0.35748091340065,
            0.032893940806388855, -0.2605801522731781, 0.13013389706611633,
            0.6442206501960754, 0.08681724220514297, 0.013968473300337791,
            0.055658552795648575, -0.0763435885310173, 0.1167067140340805,
            -0.1194443553686142, 0.40764105319976807, 0.35403260588645935,
            0.024990806356072426, 0.005432983860373497, 0.7662258744239807,
            0.04753778502345085, 0.5486621856689453, 0.34092360734939575,
            -0.5923018455505371, -0.7982315421104431, 0.6670024991035461,
            -0.02299768663942814, 0.7394300699234009, -0.05829088017344475,
            0.4167117178440094, 0.8811123967170715, 0.44346123933792114,
            0.3753887414932251, 0.26857906579971313, 0.2518443763256073,
            0.9248472452163696, 0.9527327418327332, 0.25981542468070984,
            -0.09450463205575943, -0.08760298788547516, -0.2862135171890259,
            -0.07174893468618393, -0.19043797254562378, 0.7845248579978943,
            0.32747331261634827, -0.08711285144090652, -0.1762583702802658,
            0.718075692653656, -0.13460104167461395, 0.6994730234146118,
            1.2375088930130005, 0.2108166664838791, 0.1594802588224411,
            0.021009476855397224, 0.2073822170495987, 0.214013934135437,
            0.4304632544517517, 0.20279544591903687, 0.02459448203444481,
            -0.06146824732422829, 0.07357223331928253, 0.23463289439678192,
            0.2545293867588043, 0.9860837459564209, 0.47851765155792236,
            0.31174230575561523, -0.04280805587768555, -0.29008814692497253,
            0.15345819294452667, -0.17807702720165253, -0.10102010518312454,
            0.47770053148269653, 0.42227938771247864, 0.08109497278928757,
            0.6682126522064209, 0.3286653161048889, -0.05491357296705246,
            0.15142709016799927, -0.02171023003757, 0.21159832179546356,
            -0.659453809261322, -0.2531227469444275, 0.1952468901872635,
            -0.00753780547529459, 0.3148577809333801, -0.2001187801361084,
            -0.19844593107700348, 0.4294111430644989, 0.5949586033821106,
            -0.021337920799851418, 0.5693684816360474, 1.088655948638916,
            0.36700350046157837, 0.05149764567613602, -0.052143316715955734,
            -0.01868741773068905, 0.1470842808485031, -0.02857348509132862,
            -0.13797444105148315, 0.005346796941012144, 0.39975404739379883,
            -0.2063387632369995, -0.41842857003211975, -0.35957545042037964,
            0.0028124654199928045, 0.34282350540161133, 0.3726692199707031,
            0.4952295124530792, -0.0476372204720974, -0.253861665725708,
            -0.28876805305480957, -0.529838502407074, -0.7182812690734863,
            -0.16780772805213928, 0.028331389650702477, 0.30313366651535034,
            0.7017172574996948, 0.7863054871559143, 0.6028417944908142,
            0.6892985701560974, 0.008512021973729134, 0.09242001920938492,
            -0.13864785432815552, 0.019388388842344284, 0.006640643812716007,
            -0.13573461771011353, 0.12848861515522003, -0.2908002436161041,
            0.42194801568984985, -0.012360013090074062, -0.23740555346012115,
            0.34411418437957764, 0.2581139802932739, -0.24648672342300415,
            0.7665483355522156, 0.6268476247787476, 0.0017758033936843276,
            -0.19427891075611115, -0.5177232027053833, 0.33630815148353577,
            0.4146117866039276, 0.3376293182373047, 0.2400819957256317,
            0.38912805914878845, 0.7573717832565308, 0.8566514849662781,
            0.5434404611587524, 0.28428441286087036, 0.21660465002059937,
            0.039469603449106216, -0.11570944637060165, -0.06412307173013687,
            -0.045223694294691086, -0.087177574634552, -0.24035967886447906,
            -0.1900937706232071, -0.1641983687877655, -0.2918473184108734,
            -0.32376888394355774, -0.17112857103347778, 0.6364412903785706,
            0.32926660776138306, 0.8535111546516418, 0.36576372385025024,
            0.055681925266981125, -0.9392727613449097, -0.26056763529777527,
            0.49727508425712585, -0.4599692225456238, -0.17888641357421875,
            0.15474750101566315, 0.3917303681373596, 0.6764335036277771,
            0.45971205830574036, 0.15269385278224945, 0.21790827810764313,
            0.2044573724269867, -0.02062489464879036, 0.22094032168388367,
            0.005952749401330948, 0.1510193794965744, -0.012157834134995937,
            -0.07638825476169586, 0.04687649384140968, -0.22132962942123413,
            -0.003912212792783976, -0.4598993957042694, -0.13199995458126068,
            -0.019604891538619995, 0.020375581458210945, 0.3051237165927887,
            0.39528974890708923, -0.16188308596611023, -0.24164597690105438,
            0.0923192948102951, -0.049755219370126724, -0.29744952917099,
            -0.5613143444061279, -0.01611471176147461, 0.12897197902202606,
            0.14705099165439606, -0.013625619933009148, -0.1644277423620224,
            -0.05659986659884453, 0.20398513972759247, 0.14608968794345856,
            -0.019120989367365837, 0.17919793725013733, -0.15392276644706726,
            -0.05115433409810066, -0.04904947429895401, -0.17537885904312134,
            -0.07183930277824402, 0.037867892533540726, -0.19198621809482574,
            -0.5783162713050842, -0.30461379885673523, -0.43097013235092163,
            -0.20859195291996002, -0.2743980586528778, -0.09164747595787048,
            -0.14336946606636047, -0.00556898582726717, -0.06290610134601593,
            -0.12024489045143127, -0.19862927496433258, -0.25700801610946655,
            -0.229078009724617, -0.24063649773597717, 0.012226356193423271,
            -0.06808240711688995, 0.15445338189601898, -0.07967635244131088,
            -0.1117347925901413, 0.07401584088802338, 0.15141034126281738,
            -0.08067266643047333, -0.10004934668540955, -0.05838027223944664,
            -0.07828287035226822, -0.1266116350889206, -0.12235084176063538,
            -0.05652659758925438, -0.17362698912620544, -0.19740332663059235,
            0.08214471489191055, -0.2325124591588974, -0.2414759248495102,
            -0.08176086097955704, 0.06982287764549255, -0.03378649055957794,
            0.16414092481136322, 0.14585255086421967, -0.28119349479675293,
            -0.1755458414554596, -0.19976533949375153, -0.11778723448514938,
            0.05228189378976822, 0.01535097323358059, -0.09332679957151413,
            -0.1864706128835678, 0.18301686644554138, -0.16568885743618011,
            0.019046936184167862, -0.06846684217453003, -0.17695645987987518,
            0.1267794817686081, 0.11718450486660004, 0.053671304136514664,
            0.14362947642803192, 0.10199873149394989, -0.016769684851169586,
            -0.1603947877883911, -0.12659293413162231, 0.026951149106025696,
            0.0076743485406041145, -0.1442805826663971, -0.015733296051621437,
            -0.14496839046478271, -0.1631634384393692, 0.18245099484920502,
            0.08099927008152008, 0.061174437403678894, 0.14152222871780396,
            0.06811254471540451, -0.17158323526382446, -0.22841529548168182,
            0.16026143729686737, 0.06346427649259567, -0.11878253519535065,
            -0.11139381676912308
          ],
          [
            0.05624648183584213, 0.10793676227331161, -0.1377103328704834,
            -0.10250478237867355, 0.12889249622821808, -0.10176907479763031,
            -0.0954313799738884, -0.13078872859477997, 0.03288557380437851,
            0.12167471647262573, 0.10685481876134872, 0.13398036360740662,
            -0.027300845831632614, 0.12895183265209198, 0.16430871188640594,
            -0.04029623046517372, -0.04878741502761841, -0.21119403839111328,
            -0.15364326536655426, 0.043563734740018845, -0.113690085709095,
            0.11304320394992828, -0.2363956868648529, -0.11145195364952087,
            -0.03215101733803749, -0.13922281563282013, -0.023689493536949158,
            0.05905577540397644, -0.1632855385541916, 0.023850006982684135,
            -0.025980791077017784, -0.1830900013446808, -0.008286509662866592,
            -0.12842877209186554, -0.16182394325733185, -0.047009747475385666,
            0.1580323874950409, 0.1722966730594635, 0.09633883833885193,
            0.05213199555873871, -0.014243773184716702, 0.09281351417303085,
            0.08482008427381516, -0.22081582248210907, 0.027434078976511955,
            -0.06816869974136353, -0.004685687832534313, -0.23406776785850525,
            -0.1404133290052414, 0.17344041168689728, 0.14687810838222504,
            0.15758970379829407, -0.026636699214577675, -0.15006673336029053,
            -0.07347080856561661, -0.1779230386018753, 0.11352667957544327,
            0.18746283650398254, 0.1154639795422554, 0.04762167111039162,
            0.017678115516901016, -0.09035028517246246, 0.038655076175928116,
            -0.012904741801321507, 0.02832854725420475, 0.029552606865763664,
            -0.10464314371347427, -0.1992117017507553, -0.08113237470388412,
            0.10704740881919861, -0.060155656188726425, 0.11591744422912598,
            0.04826560243964195, -0.06473939120769501, 0.08350545912981033,
            -0.11880655586719513, -0.05784173682332039, 0.18301329016685486,
            0.015001553110778332, 0.113100066781044, -0.14690247178077698,
            -0.04161018878221512, 0.022581806406378746, 0.06391239911317825,
            -0.053189296275377274, 0.1933852732181549, 0.025011172518134117,
            0.07080640643835068, -0.01535762194544077, 0.0476267971098423,
            -0.10944026708602905, 0.09151377528905869, 0.044636260718107224,
            0.03370514139533043, -0.31827300786972046, -0.4984167516231537,
            -0.3191238045692444, -0.6424590349197388, -0.3963536322116852,
            -0.10048256814479828, -0.551065981388092, -0.0974181666970253,
            -0.23412534594535828, 0.051743652671575546, -0.22962887585163116,
            -0.016832774505019188, -0.021038854494690895, -0.12072515487670898,
            -0.19236989319324493, 0.10530626028776169, 0.04700035974383354,
            0.1763080358505249, -0.13025572896003723, 0.1454850435256958,
            -0.09439919888973236, -0.09251634776592255, -0.08298960328102112,
            0.1998244822025299, -0.14940762519836426, -0.016693688929080963,
            -0.4358905851840973, -0.16915211081504822, -0.258228063583374,
            -0.2048627883195877, -0.08748818188905716, -0.12129358947277069,
            -0.14849108457565308, 0.10540186613798141, -0.033662132918834686,
            0.0381845161318779, 0.0680539682507515, -0.02633935585618019,
            -0.12009762972593307, -0.14505605399608612, 0.1830383539199829,
            -0.007944595068693161, -0.127602681517601, -0.011085936799645424,
            -0.13885830342769623, -0.06846040487289429, 0.14708805084228516,
            0.1269453912973404, 0.1247292011976242, -0.13783687353134155,
            0.2837742567062378, -0.10821854323148727, -0.05120735988020897,
            -0.24830345809459686, -0.0893445611000061, 0.31237587332725525,
            0.278855562210083, 0.026169078424572945, 0.28865668177604675,
            -0.29512202739715576, -0.165461465716362, 0.08762585371732712,
            0.0932139903306961, -0.10190943628549576, -0.39200156927108765,
            -0.1711016446352005, -0.21750472486019135, 0.03406728059053421,
            -0.26000580191612244, -0.0012930146185681224,
            -0.0001329292426817119, -0.09372898936271667, -0.11784296482801437,
            0.023485589772462845, 0.1978372484445572, -0.16333456337451935,
            0.18749788403511047, 0.10337390750646591, 0.2813267111778259,
            -0.10786015540361404, 0.018965348601341248, 0.0735163688659668,
            0.5603764653205872, 0.06113199144601822, 0.06288956850767136,
            0.36144396662712097, 0.6069386005401611, -0.28007379174232483,
            -0.6016215085983276, -0.7910118699073792, -0.43755170702934265,
            -0.12413766980171204, 0.07808703929185867, 0.18596214056015015,
            -0.09896580874919891, -0.02576388604938984, 0.08471106737852097,
            -0.22887232899665833, -0.11375193297863007, -0.08527196943759918,
            0.15197840332984924, 0.022984515875577927, -0.1092425137758255,
            0.22956575453281403, -0.016264330595731735, -0.16711030900478363,
            0.22487172484397888, 0.1612912267446518, 0.526509165763855,
            0.7978549003601074, 0.4689965844154358, 0.7451092600822449,
            0.3338758945465088, 0.22512952983379364, -0.11175807565450668,
            -0.6401976346969604, -1.0701651573181152, -0.7694368958473206,
            0.09388433396816254, -0.36261847615242004, 0.06500066816806793,
            0.3641650080680847, 0.5415784120559692, 0.46066346764564514,
            0.10231165587902069, 0.12575706839561462, -0.0008556664688512683,
            0.10156799852848053, -0.0063978214748203754, -0.014950312674045563,
            0.08545584976673126, -0.09810996055603027, 0.26661616563796997,
            0.3983957767486572, 0.06955965608358383, 0.8562940359115601,
            0.5092287659645081, 0.35795027017593384, 0.2895733118057251,
            0.4056842625141144, 0.9006707668304443, 0.25575828552246094,
            -0.2591255307197571, -0.0547468401491642, -0.016358939930796623,
            0.00475719990208745, -0.018271667882800102, -0.017161725088953972,
            0.490403413772583, 0.5885717272758484, 0.13319943845272064,
            0.2910104990005493, 0.4206724762916565, -0.028288263827562332,
            -0.16443856060504913, -0.24932809174060822, -0.054987914860248566,
            0.03420132398605347, 0.15060800313949585, 0.23007597029209137,
            0.1952420473098755, 0.5599927306175232, 0.4457567632198334,
            0.7364534735679626, 0.5936155319213867, 0.4274112582206726,
            0.42569994926452637, 0.37991973757743835, 0.4278810918331146,
            -0.19835110008716583, 0.3888983428478241, 0.20265161991119385,
            0.10541152209043503, -0.06600727885961533, 0.6660012006759644,
            0.5804274678230286, 0.6245934367179871, 0.619580090045929,
            0.04087906703352928, 0.44134560227394104, 0.32257080078125,
            -0.3576231598854065, -0.214767187833786, 0.0015880820574238896,
            -0.12116286903619766, 0.13444045186042786, -0.1440807431936264,
            0.029212292283773422, 0.3782372772693634, 0.2601940333843231,
            0.18521711230278015, 0.6202232241630554, 0.6045089960098267,
            0.628480851650238, -0.13938067853450775, 0.5117900371551514,
            0.4900711476802826, 0.4534895122051239, 0.7344621419906616,
            0.5164268016815186, -0.2640781104564667, -0.05794694274663925,
            0.3023720979690552, 0.46898701786994934, -0.03077751025557518,
            0.026642687618732452, 0.3699935972690582, 0.3262934386730194,
            0.2577071785926819, -0.08258083462715149, 0.007685265503823757,
            -0.16343049705028534, 0.16807346045970917, -0.01147027499973774,
            0.19945167005062103, 0.01286471076309681, 0.3377152681350708,
            0.3374664783477783, 0.12086701393127441, -0.15764404833316803,
            -0.091311015188694, 0.5541717410087585, -0.34907519817352295,
            0.5803648233413696, 0.35920199751853943, 0.5783935785293579,
            -0.2201778143644333, -0.8324143290519714, -1.4192872047424316,
            -0.3845158815383911, 0.4329519271850586, 0.5158298015594482,
            0.017380686476826668, 0.43143853545188904, 0.1156058982014656,
            -0.1198510080575943, -0.2683044373989105, -0.36196038126945496,
            -0.05398367717862129, -0.07900240272283554, -0.14977383613586426,
            -0.05279974266886711, 0.08247901499271393, 0.19371215999126434,
            0.3403053879737854, 0.35321366786956787, 0.018670545890927315,
            -0.19854024052619934, -0.2696741819381714, 0.30260977149009705,
            -0.227361798286438, -0.385586142539978, -0.2238282859325409,
            0.7950126528739929, -0.3444628119468689, -1.5088058710098267,
            -2.044435501098633, -0.048910222947597504, 0.21836145222187042,
            0.15367890894412994, -0.29061654210090637, -0.429353803396225,
            -0.24515491724014282, -0.49515870213508606, -0.488583505153656,
            -0.4660674035549164, -0.4250751733779907, 0.00899596605449915,
            0.17341764271259308, -0.059474311769008636, 0.1679227501153946,
            -0.0007683990988880396, 0.15923388302326202, -0.005471613723784685,
            0.08188818395137787, 0.04757510870695114, -0.0998646542429924,
            0.13769802451133728, 0.586057186126709, 0.029782896861433983,
            -0.1502140909433365, -0.020285993814468384, -1.0245810747146606,
            -1.5810543298721313, -1.2199815511703491, -0.8172500133514404,
            -0.027709780260920525, 0.17441771924495697, -0.4871165156364441,
            -0.6520721912384033, -0.7446658611297607, -0.6844985485076904,
            -0.4084325134754181, -0.7436863780021667, -0.31192049384117126,
            -0.1370842605829239, 0.15523815155029297, 0.060587480664253235,
            0.14753802120685577, 0.14973030984401703, 0.27655524015426636,
            -0.15166053175926208, 0.21226061880588531, -0.12538191676139832,
            -0.5504381060600281, -0.06795378029346466, -0.2617500126361847,
            -0.22170022130012512, -0.6248827576637268, -0.8377168774604797,
            -1.3599858283996582, -1.3103266954421997, -0.9770259261131287,
            0.2520297169685364, 0.45777449011802673, 0.5095107555389404,
            -0.20193229615688324, 0.909311056137085, -0.34326261281967163,
            0.006102684419602156, 0.17285344004631042, -0.29125863313674927,
            -0.30635038018226624, 0.03481549769639969, -0.19606351852416992,
            -0.06437932699918747, 0.09691278636455536, -0.01967913657426834,
            0.25011008977890015, 0.09203001111745834, 0.21388603746891022,
            -0.0077842529863119125, -0.44444477558135986, -0.5614725351333618,
            -0.4608176648616791, -0.25225749611854553, -0.8202816843986511,
            -1.057227611541748, -1.9874728918075562, -0.7351391315460205,
            0.11916299164295197, 0.1566764861345291, 0.011705287732183933,
            -0.024640927091240883, 0.6995223760604858, 0.48153507709503174,
            0.3653334081172943, -0.0017296966398134828, 0.2393438071012497,
            -0.12012531608343124, 0.09836830198764801, -0.1393258422613144,
            0.052787043154239655, -0.072496198117733, -0.19064493477344513,
            0.17752446234226227, -0.13365568220615387, 0.16888123750686646,
            0.15066275000572205, -0.6187853217124939, -0.35197702050209045,
            -0.3678654730319977, -0.6967167854309082, -0.27246662974357605,
            -0.7675430774688721, -1.403029441833496, -1.240152359008789,
            -0.5566480159759521, -0.18835163116455078, 0.5430298447608948,
            -0.09311658143997192, -0.11467977613210678, 0.14932121336460114,
            0.3462611734867096, 0.36166831851005554, 0.47027963399887085,
            0.11959731578826904, -0.07014886289834976, 0.3899780511856079,
            0.24690809845924377, 0.07772980630397797, 0.09880435466766357,
            0.032893113791942596, 0.050661973655223846, -0.07016724348068237,
            0.07823141664266586, -0.3168909251689911, -0.4761243760585785,
            -0.6709461212158203, -0.6486417651176453, -0.616179883480072,
            -0.771352231502533, -1.150352954864502, -0.21626849472522736,
            -0.4194662570953369, -0.489804208278656, -0.251442015171051,
            0.31592756509780884, -0.2731359302997589, 0.021877065300941467,
            0.1438826620578766, 0.29316219687461853, 0.2605867087841034,
            0.1536007523536682, 0.0942654237151146, 0.31624236702919006,
            0.18097804486751556, 0.2842797636985779, 0.15679065883159637,
            -0.12509965896606445, -0.15680363774299622, -0.029848139733076096,
            -0.06141497567296028, -0.035210177302360535, -0.4818142354488373,
            -0.8468042612075806, -0.8765321969985962, -0.3693406581878662,
            -0.5820075869560242, -0.6944958567619324, -0.3246571719646454,
            0.26734650135040283, -0.3635232746601105, 0.315871924161911,
            0.12450716644525528, -0.4224584698677063, -0.12554781138896942,
            -0.18422633409500122, -0.19823133945465088, -0.20293715596199036,
            -0.5561404228210449, -0.36281487345695496, -0.08777299523353577,
            0.03790196403861046, 0.4232850670814514, -0.00006705574196530506,
            -0.1272483468055725, -0.15653403103351593, -0.1478937715291977,
            0.014928705990314484, 0.18859726190567017, -0.026153670623898506,
            -0.29645052552223206, -0.6289804577827454, -0.8154041171073914,
            -0.683933436870575, -0.36518755555152893, -0.5189346671104431,
            -0.3372002840042114, 0.10951092094182968, 0.17988468706607819,
            0.6702755689620972, -0.057624563574790955, -0.1432495415210724,
            -0.2450038343667984, -0.21166163682937622, -0.7212116718292236,
            -0.5609942674636841, -0.3899460732936859, -0.48720115423202515,
            -0.47493216395378113, 0.15749727189540863, 0.3033216595649719,
            0.1473482847213745, 0.1659766435623169, 0.18693092465400696,
            -0.013021068647503853, -0.1334111988544464, 0.1489230990409851,
            0.10745655745267868, -0.25670909881591797, -0.2311943620443344,
            -0.5328460335731506, -0.4834132492542267, -0.08144181966781616,
            -0.46682894229888916, 0.3998168408870697, 0.5220552682876587,
            0.8949316740036011, 0.13967454433441162, 0.19520138204097748,
            0.34087276458740234, -0.4979976415634155, -0.4356207251548767,
            -0.4273715019226074, -0.25486692786216736, -0.33321094512939453,
            -0.6135280728340149, -0.19523663818836212, 0.27971258759498596,
            0.15552814304828644, -0.052625253796577454, 0.08868232369422913,
            0.04963422939181328, 0.028780892491340637, -0.08726273477077484,
            -0.1383916288614273, -0.2567308843135834, 0.07977580279111862,
            -0.2270679771900177, -0.24235661327838898, 0.10350869596004486,
            -0.3658842146396637, -0.41131097078323364, 0.542521059513092,
            0.5954367518424988, 0.09397590160369873, -0.019202210009098053,
            -0.37707459926605225, 0.5051600933074951, -0.33133044838905334,
            -0.10512328147888184, 0.28673335909843445, 0.3553135395050049,
            -0.2484551966190338, -0.2198437750339508, 0.10964982956647873,
            0.31135842204093933, 0.19367855787277222, -0.036045994609594345,
            -0.0462690107524395, 0.09356939047574997, -0.009534304961562157,
            0.06154216080904007, 0.14592427015304565, -0.0861227884888649,
            -0.0071578980423510075, 0.23115484416484833, 0.48239725828170776,
            0.2539121210575104, 0.1837267428636551, -0.12558172643184662,
            -0.06855938583612442, -0.22848623991012573, -0.2846117913722992,
            0.5003990530967712, 0.49276816844940186, 0.41797614097595215,
            -0.45582103729248047, -0.12876416742801666, 0.058898184448480606,
            0.1648574024438858, -0.2601146697998047, 0.08407402038574219,
            0.0828389823436737, -0.1206621304154396, 0.019352883100509644,
            -0.06864303350448608, -0.17113985121250153, 0.14411216974258423,
            0.13118916749954224, 0.12821778655052185, -0.17296801507472992,
            -0.09390802681446075, -0.08956851065158844, 0.4378586709499359,
            0.503289520740509, 0.29368072748184204, -0.19472631812095642,
            -0.15251323580741882, -0.08058276027441025, -0.275899201631546,
            -0.2073986977338791, 0.40928754210472107, -0.01780826412141323,
            0.17331065237522125, -0.26181140542030334, -0.1633082926273346,
            -0.002122731413692236, 0.14154896140098572, -0.288442462682724,
            -0.06755086034536362, -0.32642030715942383, -0.315463125705719,
            0.014102340675890446, -0.034584082663059235, -0.05840063467621803,
            0.2010723203420639, -0.005446473136544228, -0.17568008601665497,
            0.1076381579041481, -0.011690248735249043, -0.17013634741306305,
            0.473486065864563, 0.3089563846588135, -0.23684009909629822,
            -0.5903670191764832, 0.19636750221252441, 0.10471142828464508,
            -0.08592404425144196, -0.4186524450778961, 0.11847960203886032,
            -0.05559886246919632, 0.19987666606903076, -0.015555131249129772,
            -0.3805529773235321, -0.1436474323272705, -0.055236537009477615,
            -0.3942839503288269, 0.12335590273141861, -0.05796409398317337,
            -0.2160981446504593, 0.22225064039230347, 0.10618312656879425,
            0.07017899304628372, 0.020779157057404518, -0.08203864842653275,
            -0.17323577404022217, 0.11818314343690872, 0.1651766300201416,
            -0.034101009368896484, -0.025050334632396698, -0.4443609416484833,
            -0.3511258661746979, 0.22023899853229523, -0.09605961292982101,
            0.05277404934167862, 0.6062095761299133, 0.09168516844511032,
            -0.2950631380081177, 0.27805468440055847, 0.6206026077270508,
            -0.002260542009025812, 0.27955520153045654, 0.16069675981998444,
            -0.27646318078041077, -0.190217062830925, -0.27520185708999634,
            0.07877955585718155, -0.35037434101104736, -0.05839509144425392,
            -0.11735185235738754, 0.03526678308844566, -0.09175248444080353,
            0.016804074868559837, -0.1297791749238968, -0.008311699144542217,
            -0.024204162880778313, -0.23418502509593964, -0.033502206206321716,
            -0.1752808392047882, -0.1474904865026474, -0.38803696632385254,
            -0.08692068606615067, -0.08040042966604233, 0.13448111712932587,
            -0.42594191431999207, -0.251279354095459, -0.0510580912232399,
            -0.34396791458129883, -0.0498485304415226, 0.1764429360628128,
            0.4414561986923218, 0.3803366422653198, 0.0180668942630291,
            -0.13359664380550385, 0.12327776104211807, 0.0068018012680113316,
            -0.054901473224163055, 0.02023451402783394, -0.16432389616966248,
            0.08829807490110397, -0.08450920134782791, -0.029349155724048615,
            0.03963801637291908, 0.08308272063732147, 0.03305894508957863,
            -0.027661805972456932, 0.11765356361865997, -0.112179696559906,
            0.04934915155172348, -0.1340649127960205, -0.013629102148115635,
            -0.0782582238316536, -0.021166900172829628, 0.35015392303466797,
            0.3582110106945038, 0.023621514439582825, 0.0944918766617775,
            -0.019479485228657722, 0.04928513243794441, 0.0789112076163292,
            0.1988869458436966, -0.007883484475314617, 0.1410636007785797,
            -0.06298698484897614, -0.19657684862613678, 0.06487765908241272,
            0.12009836733341217, -0.18112832307815552
          ],
          [
            -0.09482015669345856, -0.12971675395965576, -0.21678641438484192,
            0.11209258437156677, -0.03988958150148392, -0.1298254132270813,
            0.1597331464290619, 0.053220897912979126, 0.19422757625579834,
            -0.25669804215431213, 0.10033368319272995, 0.05891875922679901,
            -0.019670773297548294, 0.09540017694234848, -0.029759444296360016,
            -0.17977523803710938, -0.1265600472688675, 0.002530142432078719,
            -0.11246054619550705, 0.020692821592092514, -0.07689017802476883,
            0.12271101027727127, 0.1823122501373291, -0.12532074749469757,
            0.04122829809784889, -0.0818980410695076, -0.08727779239416122,
            0.048137366771698, -0.1161891296505928, -0.19144079089164734,
            0.15546368062496185, 0.09902846068143845, 0.14461135864257812,
            -0.09334184974431992, -0.1632121205329895, -0.17988860607147217,
            -0.16070914268493652, -0.23741964995861053, -0.019580325111746788,
            -0.2058199942111969, -0.24022535979747772, -0.01725526712834835,
            -0.21044766902923584, 0.16735534369945526, -0.004576663952320814,
            -0.11899439245462418, -0.004066229332238436, 0.09961723536252975,
            0.07541118562221527, -0.08669396489858627, 0.06575064361095428,
            -0.14530901610851288, 0.13251961767673492, -0.178537055850029,
            0.049335259944200516, 0.09322161227464676, 0.16754455864429474,
            0.13519178330898285, -0.0010873435530811548, -0.15474531054496765,
            -0.05557917058467865, -0.08952055871486664, 0.205675408244133,
            0.15869121253490448, 0.09247049689292908, 0.02371109090745449,
            -0.20336663722991943, -0.25093990564346313, -0.4202852249145508,
            -0.06820398569107056, -0.3018466830253601, -0.05199326574802399,
            0.0031841762829571962, 0.20950230956077576, -0.03693035617470741,
            0.015942353755235672, -0.17039908468723297, 0.06504208594560623,
            0.059016283601522446, 0.04513920098543167, 0.16169919073581696,
            -0.015464888885617256, -0.03707365691661835, 0.10450981557369232,
            0.20134595036506653, -0.03749905899167061, 0.039107952266931534,
            -0.07526107877492905, -0.1652008295059204, -0.13284768164157867,
            0.03150466829538345, -0.04571275785565376, -0.2693210244178772,
            -0.061593152582645416, -0.36790531873703003, -0.19947606325149536,
            -0.5985268354415894, -0.4427066445350647, -0.7401369214057922,
            -0.7351233959197998, -0.4171200394630432, -0.0992484912276268,
            -0.21018114686012268, -0.5935705304145813, -0.5471407771110535,
            -0.09292604774236679, 0.0031651128083467484, 0.1358427107334137,
            -0.28060418367385864, 0.14074541628360748, -0.014284923672676086,
            -0.0266962181776762, 0.15169070661067963, -0.09572841227054596,
            0.22805336117744446, 0.007666294928640127, 0.2111605852842331,
            -0.2133798450231552, 0.20478343963623047, -0.05045492202043533,
            -0.08355919271707535, -0.27081456780433655, -0.13464149832725525,
            0.12905673682689667, -0.08829405903816223, 0.022313598543405533,
            -0.021133452653884888, -0.24543561041355133, -0.35190507769584656,
            -0.44435253739356995, -0.2982950210571289, -0.10751558840274811,
            -0.024717235937714577, -0.38660040497779846, 0.15353600680828094,
            0.0006730717141181231, -0.12007861584424973, 0.12012232840061188,
            0.12944120168685913, 0.1583072394132614, -0.06685134023427963,
            0.14879220724105835, 0.018544452264904976, 0.1297515332698822,
            -0.12352495640516281, 0.22493059933185577, -0.026373518630862236,
            -0.24790999293327332, -0.7489063143730164, -0.7922890186309814,
            -0.6936136484146118, 0.07401015609502792, 0.42806491255760193,
            0.6641871929168701, 0.015058917924761772, 0.07063988596200943,
            -0.10937368869781494, 0.35085463523864746, 0.2714090943336487,
            -0.1426527202129364, 0.061365216970443726, -0.12207717448472977,
            -0.03290126845240593, -0.3804760277271271, -0.5183375477790833,
            -0.07963012903928757, 0.15178202092647552, -0.020042866468429565,
            0.19063405692577362, 0.18022537231445312, 0.1491837501525879,
            0.05657085403800011, -0.03737838938832283, 0.06591246277093887,
            -0.1376323699951172, -0.5143004059791565, -0.8326291441917419,
            0.02772274985909462, -0.010557915084064007, -0.12868627905845642,
            0.26763904094696045, -0.025282761082053185, -0.057089243084192276,
            -0.22439196705818176, 0.601978600025177, 0.41712602972984314,
            -0.3068732023239136, -0.1928652673959732, -0.10723654925823212,
            0.3897414803504944, 0.026600083336234093, -0.5612999796867371,
            -0.5469142198562622, -0.08604113757610321, 0.037562668323516846,
            -0.0066603790037333965, 0.01590672880411148, 0.07032870501279831,
            0.06669590622186661, 0.1501452624797821, 0.5835434198379517,
            0.35211294889450073, -0.07140320539474487, -0.3501949906349182,
            0.4137100577354431, -0.20814946293830872, -0.20523247122764587,
            -0.8544415831565857, -0.25676706433296204, 0.2861286997795105,
            -0.019742202013731003, 0.23509667813777924, -0.6346708536148071,
            -0.20451520383358002, 0.15363150835037231, 0.008635732345283031,
            0.2335008680820465, 0.4217472970485687, -0.077607661485672,
            -0.2536270320415497, -0.1003396213054657, 0.18284228444099426,
            -0.1260865479707718, -0.15552207827568054, -0.15671902894973755,
            0.11961684376001358, 0.07160463184118271, 0.06970946490764618,
            0.30370694398880005, 0.182872012257576, 0.4685107171535492,
            0.7657601237297058, 0.2126045823097229, 0.290995329618454,
            0.22350458800792694, 0.3262477517127991, -0.0788111686706543,
            0.20710152387619019, 0.1790453940629959, 0.0638384148478508,
            -0.4858638048171997, 0.05074946954846382, 0.6406573057174683,
            0.1746961623430252, -0.5344244241714478, -0.28329357504844666,
            0.28466475009918213, -0.7073565125465393, -0.8443641066551208,
            -0.1289074420928955, -0.14203587174415588, 0.13803017139434814,
            -0.12105724215507507, 0.10010309517383575, 0.18767446279525757,
            -0.15832988917827606, 0.48469048738479614, 0.6273472309112549,
            1.068146824836731, 1.2855076789855957, 0.8453081846237183,
            0.41294968128204346, 0.26928550004959106, 0.784396767616272,
            -0.07044094800949097, -0.20124731957912445, -0.751242995262146,
            -0.013406808488070965, 0.7827292680740356, 1.1285011768341064,
            0.07241443544626236, 0.2537655532360077, -0.0886760950088501,
            0.28487852215766907, 0.3737981617450714, -0.9018564224243164,
            -1.101788878440857, -0.7370438575744629, -0.14968854188919067,
            -0.19957461953163147, 0.20993554592132568, 0.17327404022216797,
            -0.11675162613391876, -0.03512216731905937, 0.2679779529571533,
            0.49866077303886414, 0.7908238172531128, 0.4747992157936096,
            1.1444967985153198, 0.16909079253673553, 0.014500223100185394,
            0.5884979963302612, -0.27748391032218933, -1.2307695150375366,
            -0.8125104904174805, 0.3259206712245941, 0.8896210193634033,
            0.06430196017026901, 0.9869264364242554, 1.3706986904144287,
            0.03793424740433693, 0.4628487229347229, 0.6597811579704285,
            -0.6340076327323914, -0.6211268305778503, -0.2517569065093994,
            -0.060048289597034454, -0.16339658200740814, 0.07071077078580856,
            0.030325736850500107, 0.2283218652009964, 0.01473955437541008,
            0.3932449221611023, 0.19649523496627808, 0.36168909072875977,
            -0.0451907180249691, 0.4483514130115509, 0.7715959548950195,
            -0.029513392597436905, -0.16812051832675934, -0.598819375038147,
            -1.1586716175079346, 0.2199898213148117, 0.8916381597518921,
            0.5052176713943481, 0.45382121205329895, 0.9707238674163818,
            0.32462799549102783, 1.0444998741149902, 0.9387573599815369,
            0.673801064491272, -0.23273512721061707, -0.3742307722568512,
            -0.09129143506288528, -0.08960698544979095, -0.0640961155295372,
            -0.014775470830500126, 0.09434643387794495, 0.2058648020029068,
            0.3241802453994751, 0.2102782279253006, 0.1534685492515564,
            -0.30751675367355347, -0.11205238103866577, -0.8967792391777039,
            -0.7085901498794556, -1.0030980110168457, -0.8565872311592102,
            -0.5831789970397949, -0.4279254674911499, 0.896894633769989,
            0.6844438910484314, 0.4038882851600647, 0.8182542324066162,
            0.36900219321250916, 1.034475564956665, 0.7446541786193848,
            0.5771055817604065, 0.48545411229133606, 0.490714430809021,
            0.3005269765853882, 0.02756638638675213, 0.2164766937494278,
            0.01722429320216179, 0.05880638584494591, 0.14564771950244904,
            -0.1599770486354828, -0.0793270394206047, 0.04674500972032547,
            -0.34316879510879517, -0.49187546968460083, -0.4709722101688385,
            -0.3595011532306671, -0.39717981219291687, -0.7610481381416321,
            -0.277583509683609, 0.19902701675891876, 0.21101060509681702,
            0.3019026517868042, 0.9907065033912659, 0.5591859221458435,
            0.5455642342567444, 0.501448929309845, 0.9920853972434998,
            0.6158262491226196, 0.1266024261713028, 0.36315619945526123,
            -0.11956937611103058, -0.21298855543136597, 0.033696264028549194,
            -0.1561620533466339, -0.16650260984897614, 0.01155930943787098,
            0.015109576284885406, -0.02483562007546425, -0.051594141870737076,
            -0.19980180263519287, -0.7570598721504211, -0.4813063144683838,
            -0.6120982766151428, -0.7118796110153198, -0.8840788006782532,
            -0.198678657412529, 0.23882146179676056, 0.21032878756523132,
            0.9129977822303772, 0.956849992275238, 0.7164010405540466,
            0.822084903717041, 0.8914139866828918, 1.0149871110916138,
            0.8965094089508057, -0.2827828824520111, 0.003068340476602316,
            -0.5689728856086731, -0.5544480085372925, -0.1582871526479721,
            0.20432129502296448, -0.1511174887418747, -0.07005967199802399,
            0.20801977813243866, 0.038361579179763794, 0.19886143505573273,
            -0.002570139477029443, -0.01391327939927578, -0.6225622892379761,
            -0.32570672035217285, -0.8160226345062256, -0.14948321878910065,
            -0.645512044429779, -0.29277703166007996, 0.2926397919654846,
            0.169049933552742, 0.5076556205749512, 0.03822188079357147,
            0.1525379717350006, 0.6394265294075012, 0.07755853235721588,
            -0.3895510137081146, -0.39399510622024536, -0.8882394433021545,
            -0.5949501991271973, -1.1223385334014893, -1.0221848487854004,
            -0.3638528287410736, -0.03570367768406868, 0.09083099663257599,
            0.14863193035125732, 0.16344045102596283, -0.25621268153190613,
            0.0677497610449791, 0.12941314280033112, 0.0552937313914299,
            -0.25378167629241943, -0.18972593545913696, -0.7541674971580505,
            0.9443116188049316, 0.20246995985507965, 0.6159487366676331,
            0.3355758488178253, 0.4955064058303833, 0.6970537304878235,
            0.529229462146759, 0.40673166513442993, 0.6160767674446106,
            0.27630043029785156, 0.03575187548995018, -0.900925874710083,
            -1.211601972579956, -0.4190201461315155, -0.7011952996253967,
            -0.3546845316886902, 0.13778582215309143, 0.42074939608573914,
            0.03273748978972435, 0.07136214524507523, -0.024227820336818695,
            0.03138769790530205, -0.07874534279108047, 0.15394051373004913,
            0.03006245754659176, -0.34900644421577454, -0.2545444667339325,
            -0.10254709422588348, 0.7377446889877319, -0.341094970703125,
            0.061658866703510284, 0.3492596447467804, 0.7430136203765869,
            0.8726832866668701, 0.4887499511241913, -0.0407281219959259,
            0.3503549098968506, 0.014075536280870438, -0.4077621102333069,
            -0.5383382439613342, -0.7674492597579956, -0.15854237973690033,
            -0.4780904948711395, -0.20118781924247742, 0.5770719647407532,
            0.4237056374549866, -0.05426555499434471, 0.041940849274396896,
            0.09634838253259659, -0.05611194297671318, -0.20266319811344147,
            0.2232198715209961, -0.0657007098197937, -0.3376072943210602,
            -0.5963342189788818, -0.054867781698703766, 0.005199583247303963,
            -0.10974680632352829, -0.26555344462394714, 0.7812058925628662,
            0.4464997351169586, 0.6786715388298035, 0.13855256140232086,
            -0.13918064534664154, -0.6398739814758301, -0.4971165060997009,
            -0.7322604656219482, -0.17366226017475128, -0.6313522458076477,
            -0.3429010808467865, -0.2565802335739136, -0.08985470980405807,
            0.39811477065086365, 0.20311351120471954, -0.06228053942322731,
            0.21103167533874512, 0.06772144138813019, -0.07979560643434525,
            -0.16249480843544006, 0.18856558203697205, -0.4227713644504547,
            -0.19921326637268066, -0.4574776887893677, -0.0008838766370899975,
            0.06529203057289124, 0.24884386360645294, -0.42402735352516174,
            -0.24697214365005493, -0.15131615102291107, -0.7604909539222717,
            -0.5866115093231201, -0.669942319393158, -0.7597224116325378,
            -0.2107248306274414, -0.3430832326412201, -0.733687162399292,
            -0.0806339830160141, -0.15273725986480713, 0.0015776049112901092,
            0.18846389651298523, 0.23230509459972382, -0.06692579388618469,
            -0.06305684894323349, 0.061617206782102585, -0.05361128970980644,
            -0.19502604007720947, -0.05907269939780235, 0.33496952056884766,
            0.006540622562170029, -0.3985154628753662, 0.23908616602420807,
            -0.2143508940935135, -0.09397516399621964, -0.4421038329601288,
            -0.6125966310501099, -0.6774305105209351, -0.7796066999435425,
            -0.22613856196403503, -0.654582679271698, -0.45825478434562683,
            -0.9121445417404175, -0.44676676392555237, -0.065184585750103,
            -0.29801514744758606, 0.21734926104545593, -0.1930372267961502,
            -0.26596134901046753, 0.17051959037780762, 0.21371056139469147,
            0.18658876419067383, 0.12867550551891327, 0.11020025610923767,
            -0.06441900879144669, -0.1778654307126999, -0.26110169291496277,
            -0.0324457548558712, 0.1359974890947342, 0.014493511989712715,
            0.28014707565307617, 0.213438481092453, -0.008008409291505814,
            -0.018974807113409042, -0.022254208102822304, -0.28268787264823914,
            0.01797488145530224, -0.26136934757232666, -0.4405863881111145,
            -0.11411544680595398, 0.008803273551166058, -0.6081892251968384,
            -0.6571400761604309, -0.05136071518063545, 0.08896318823099136,
            -0.5718954801559448, 0.024641022086143494, 0.19509856402873993,
            0.21354243159294128, 0.27263715863227844, 0.09348498284816742,
            -0.13438904285430908, 0.06718526780605316, 0.07789638638496399,
            0.08433909714221954, 0.352710098028183, 0.2245597243309021,
            0.04076710715889931, 0.22843453288078308, 0.04896766319870949,
            0.14813072979450226, -0.4785304665565491, 0.2971486449241638,
            -0.5508926510810852, -0.3791082799434662, 0.044778332114219666,
            0.16656166315078735, 0.17447663843631744, -0.427859902381897,
            -0.15179182589054108, -0.202580526471138, -0.005100297275930643,
            0.021756067872047424, 0.02923394925892353, 0.00794997438788414,
            -0.0313052162528038, 0.19636176526546478, 0.09784451127052307,
            0.004306316375732422, -0.11454548686742783, -0.027013901621103287,
            -0.24547740817070007, -0.15195982158184052, 0.1090724766254425,
            -0.34547656774520874, 0.09953960031270981, -0.030241740867495537,
            0.435179203748703, 0.2779272794723511, -0.0805589109659195,
            -0.5059047341346741, 0.27243155241012573, 0.3477556109428406,
            -0.11523844301700592, 0.06953615695238113, 0.35319000482559204,
            0.2385762482881546, 0.0701138898730278, 0.4719209671020508,
            -0.06409845501184464, -0.2236725091934204, 0.053978994488716125,
            0.15446987748146057, -0.048743441700935364, -0.04164188727736473,
            -0.1742134541273117, 0.009279570542275906, -0.14641408622264862,
            0.14802417159080505, -0.08560041338205338, 0.11381971836090088,
            -0.0035091389436274767, 0.07114090770483017, -0.14826171100139618,
            -0.22071895003318787, -0.22190746665000916, 0.04600623622536659,
            0.0002644859778229147, -0.14478518068790436, -0.5244961380958557,
            -0.8804113268852234, -0.38903486728668213, -0.455231636762619,
            -0.4946500062942505, -0.3081476092338562, -0.12989985942840576,
            -0.17459170520305634, -0.27358609437942505, -0.2572108507156372,
            -0.14716701209545135, -0.10631071031093597, 0.13194483518600464,
            0.07024051994085312, -0.055446840822696686, 0.13116994500160217,
            -0.15310560166835785, 0.14273019134998322, 0.01748470589518547,
            0.020010104402899742, -0.09795305132865906, 0.12371442466974258,
            0.26631465554237366, 0.14292317628860474, 0.3770003914833069,
            -0.12265178561210632, 0.017715459689497948, -0.2601850628852844,
            -0.40790367126464844, -0.3396524488925934, -0.24401624500751495,
            -0.40351614356040955, -0.0759434774518013, -0.4204844832420349,
            -0.27625206112861633, -0.18682722747325897, -0.10337932407855988,
            -0.41146838665008545, -0.08274875581264496, -0.035569630563259125,
            0.018929610028862953, 0.09243468940258026, -0.09453780204057693,
            0.13839605450630188, 0.18481478095054626, -0.03870163485407829,
            -0.07424303889274597, -0.045571208000183105, -0.02049613930284977,
            0.14889782667160034, -0.1342507004737854, -0.0904085636138916,
            -0.0827803984284401, 0.20384301245212555, -0.003500186838209629,
            0.3768606185913086, -0.06081885099411011, -0.294817715883255,
            0.05970153585076332, -0.17075516283512115, -0.03400939702987671,
            -0.23725080490112305, 0.17391864955425262, 0.1053670346736908,
            -0.07261241972446442, -0.022894499823451042, -0.02157902531325817,
            0.02172737568616867, -0.1747913658618927, -0.0076361289247870445,
            0.05475039407610893, -0.1324177086353302, 0.16107702255249023,
            0.16774389147758484, -0.16985177993774414, 0.1261746883392334,
            -0.15971986949443817, 0.1072777509689331, -0.004722957964986563,
            0.13963930308818817, 0.09661000221967697, 0.00163081637583673,
            0.03269720450043678, -0.07930537313222885, -0.04323265701532364,
            -0.13957688212394714, -0.12310457229614258, -0.22597642242908478,
            0.13931222259998322, 0.05439983308315277, 0.13862428069114685,
            -0.1150912418961525, 0.10326813906431198, 0.07743579894304276,
            0.06705831736326218, 0.037263259291648865, -0.015580573119223118,
            0.19684366881847382, 0.07302847504615784, -0.023700496181845665,
            0.16906790435314178
          ],
          [
            0.14135310053825378, -0.16130730509757996, -0.07504741847515106,
            -0.1544031947851181, -0.19751104712486267, -0.04160957783460617,
            0.09329187870025635, 0.14011357724666595, 0.06923014670610428,
            0.07628607749938965, 0.11165043711662292, 0.03563418239355087,
            -0.10126843303442001, -0.2962449789047241, -0.14678391814231873,
            -0.009066817350685596, -0.10876762866973877, -0.11988022923469543,
            0.04453347250819206, 0.15137730538845062, -0.17431539297103882,
            -0.10076019912958145, -0.20582698285579681, -0.27248629927635193,
            0.032274406403303146, -0.05265304073691368, -0.19994457066059113,
            -0.16807033121585846, 0.03340689465403557, 0.09320792555809021,
            -0.009389951825141907, 0.11577761918306351, 0.039115697145462036,
            0.02665354683995247, 0.08663952350616455, -0.13173945248126984,
            -0.06259874254465103, -0.25765010714530945, -0.07412867248058319,
            -0.11064430326223373, -0.24088157713413239, 0.1015918105840683,
            -0.019455552101135254, 0.3217529356479645, -0.11287950724363327,
            -0.25824564695358276, -0.3004700541496277, -0.1787249594926834,
            -0.3074018359184265, -0.2335335612297058, -0.22513404488563538,
            -0.1209438219666481, 0.11003924161195755, -0.19256281852722168,
            0.027787594124674797, 0.05869671329855919, 0.1081978902220726,
            0.06657417118549347, -0.14844238758087158, 0.0774131491780281,
            0.16544263064861298, 0.06930625438690186, -0.12530142068862915,
            -0.1963486671447754, -0.16144807636737823, -0.2743447721004486,
            -0.3150830864906311, -0.3879517614841461, -0.24298320710659027,
            -0.12279129028320312, -0.09065143764019012, 0.2540368139743805,
            -0.06628897041082382, -0.1669028252363205, -0.37437036633491516,
            -0.10231580585241318, -0.21429865062236786, -0.2211594432592392,
            -0.24820710718631744, 0.01784161478281021, 0.00048210113891400397,
            0.0030057390686124563, 0.17923153936862946, -0.1688746213912964,
            -0.1424977034330368, 0.06509049981832504, 0.14989884197711945,
            -0.013628572225570679, 0.08132945746183395, -0.12419771403074265,
            0.059711359441280365, -0.18953414261341095, -0.17011332511901855,
            -0.13386638462543488, -0.337105393409729, -0.5042718052864075,
            -0.42414960265159607, -0.49786242842674255, -0.1856471449136734,
            -0.014402033761143684, -0.3939938247203827, -0.5597996711730957,
            -0.4581027328968048, -0.37512442469596863, -0.6274641752243042,
            -0.14944295585155487, 0.25556859374046326, 0.00394462700933218,
            0.0836174488067627, 0.04778219759464264, -0.08708620071411133,
            0.12109048664569855, -0.02130461111664772, -0.038446370512247086,
            -0.1994151473045349, 0.14043664932250977, -0.1934257447719574,
            -0.03149677813053131, -0.14352776110172272, 0.10957520455121994,
            -0.29470396041870117, -0.5094729661941528, -0.6613316535949707,
            -0.9126958250999451, -0.7081852555274963, -0.4780466854572296,
            -0.10119226574897766, 0.002988181309774518, 0.12415388226509094,
            -0.1453309804201126, -0.1522877961397171, -0.2015099674463272,
            -0.02892887219786644, 0.07783655822277069, 0.5543128848075867,
            0.5267055630683899, 0.5963561534881592, 0.17884905636310577,
            0.05687089264392853, 0.08083426207304001, 0.09944915771484375,
            -0.04842051491141319, 0.15746843814849854, 0.01916022226214409,
            -0.3438508212566376, -0.35611027479171753, -0.3078545928001404,
            -0.4031262695789337, -0.6655216813087463, -0.7136369943618774,
            -0.9891310930252075, -0.9946625828742981, -0.9625394344329834,
            -0.8002318739891052, -1.1598212718963623, -1.6006782054901123,
            -1.0890045166015625, -1.0084435939788818, -0.7630507946014404,
            -0.528160810470581, -0.42505699396133423, -0.03623027354478836,
            0.35346484184265137, -0.05867002159357071, 0.09696166217327118,
            0.11486384272575378, 0.076247937977314, -0.13778844475746155,
            -0.07546522468328476, -0.09074773639440536, -0.1227429211139679,
            -0.22069844603538513, -0.1151648461818695, 0.24629616737365723,
            -0.1730445772409439, -0.40127310156822205, -0.09990700334310532,
            -0.19640803337097168, -0.33852818608283997, -0.11162137985229492,
            -0.1611042022705078, -0.15502677857875824, 0.26752644777297974,
            -0.028055258095264435, -0.01008343230932951, -0.3585253059864044,
            -0.12508507072925568, -0.16519056260585785, -0.4610719382762909,
            -0.727939784526825, -0.8106786012649536, -1.0023515224456787,
            -0.21020807325839996, -0.26397985219955444, 0.009655897505581379,
            -0.035334959626197815, -0.15243715047836304, 0.15684960782527924,
            -0.1611202210187912, 0.15150757133960724, -0.018746495246887207,
            0.090779148042202, -0.20023976266384125, 0.3142508268356323,
            0.16233325004577637, -0.2494518905878067, 0.02593419887125492,
            0.5076714158058167, 0.383771687746048, 0.30899304151535034,
            1.0546931028366089, 0.6233606338500977, 0.6934444308280945,
            0.8175297975540161, 0.20939624309539795, -0.002044632099568844,
            0.1481393575668335, -0.4021422266960144, -0.5848425030708313,
            -0.08278672397136688, -0.7200697064399719, -0.49863192439079285,
            -0.1632775366306305, -0.021404903382062912, -0.06568238139152527,
            0.027125470340251923, -0.06527325510978699, -0.17216461896896362,
            -0.2025795876979828, -0.12865358591079712, 0.15223786234855652,
            0.3489893078804016, 0.2911268472671509, 0.44526243209838867,
            -0.07331421226263046, 0.5134075880050659, 0.23995071649551392,
            0.0609012208878994, 0.29388678073883057, 0.20715466141700745,
            0.0477694496512413, 0.3805699050426483, -0.26775527000427246,
            -0.5637273788452148, -0.41600728034973145, -0.28169041872024536,
            -0.3396953344345093, -0.18453584611415863, -0.6359931826591492,
            -0.2827529013156891, -0.08570069074630737, 0.0075858947820961475,
            -0.09495648741722107, 0.05380409210920334, -0.18811851739883423,
            0.007717499975115061, 0.11320667713880539, -0.10806258022785187,
            0.39109930396080017, 0.3011991083621979, 0.02372175082564354,
            0.20112520456314087, 0.1499866247177124, 0.12182869017124176,
            0.6181533932685852, 0.758908748626709, 0.17394664883613586,
            0.30546000599861145, 0.49328938126564026, 0.12584447860717773,
            -0.2773400843143463, 0.3786414563655853, 0.4087221324443817,
            0.04619697481393814, -0.1564621925354004, 0.13461823761463165,
            0.5758699178695679, 0.3655391037464142, -0.0343860499560833,
            -0.09268192946910858, -0.19758886098861694, 0.11425144225358963,
            0.13339856266975403, -0.21607615053653717, 0.30746325850486755,
            0.40687647461891174, 0.28824275732040405, -0.467458039522171,
            -0.47535496950149536, 0.3052075207233429, -0.1825738549232483,
            0.2371632307767868, 0.2051411271095276, 0.7702457904815674,
            0.6970191597938538, 0.4709312617778778, 0.49147745966911316,
            0.025523418560624123, 0.620209276676178, 0.3216306269168854,
            0.8134782910346985, 0.16537538170814514, 0.03658871352672577,
            0.06202160567045212, 0.6534181833267212, 0.3292771577835083,
            0.1681993007659912, 0.07690197229385376, 0.06144075468182564,
            0.04589482396841049, -0.09684427082538605, 0.20442070066928864,
            0.21906626224517822, 0.1212456002831459, -0.038409922271966934,
            0.13017582893371582, 0.3805033266544342, 0.10830733180046082,
            0.37424010038375854, -0.052933480590581894, 0.640116810798645,
            1.1809293031692505, 0.7485660314559937, 0.7014108300209045,
            0.6111909747123718, 0.35311731696128845, 0.3982026278972626,
            0.432943731546402, 0.22025161981582642, 0.40084511041641235,
            0.2152204066514969, 0.20203915238380432, 0.42801767587661743,
            0.4418730139732361, 0.4480861723423004, -0.10801921784877777,
            -0.15016378462314606, -0.07673836499452591, 0.1667017638683319,
            0.08560576289892197, 0.24564120173454285, 0.3118021488189697,
            0.5212867856025696, 0.6326630115509033, 0.6045398116111755,
            0.4269026517868042, 0.14059916138648987, -0.5798706412315369,
            -0.14637011289596558, -0.45023655891418457, 0.4987505376338959,
            0.048234131187200546, 0.1558689922094345, 0.5906386971473694,
            0.6512718796730042, 0.10691208392381668, -0.036583662033081055,
            -0.1343880146741867, -0.027997000142931938, 0.0831436738371849,
            -0.14553500711917877, 0.05031459406018257, 0.028651194646954536,
            0.030234046280384064, 0.05255650356411934, 0.07035134732723236,
            0.23721158504486084, 0.1801070272922516, 0.37656185030937195,
            -0.19939465820789337, 0.20991306006908417, -0.3139221966266632,
            0.039405737072229385, -0.4993705451488495, -0.5578014850616455,
            -0.9682335257530212, -0.5850446820259094, -0.13433445990085602,
            0.16717809438705444, -0.11506206542253494, -0.6130356788635254,
            -0.5866814255714417, 0.03137609362602234, 0.4354499280452728,
            0.217869833111763, -0.162205770611763, -0.2409544438123703,
            -0.4977189004421234, -0.25380420684814453, 0.08100501447916031,
            0.1579023152589798, -0.021591544151306152, -0.051420506089925766,
            -0.10201740264892578, 0.07409489899873734, 0.35962623357772827,
            0.138080894947052, -0.17285999655723572, -0.24793949723243713,
            -0.24857784807682037, -0.4399210810661316, -0.5436652898788452,
            0.21148501336574554, -0.26534831523895264, -0.658222496509552,
            -0.3171365261077881, 0.03451250493526459, -0.2602428197860718,
            -0.5501332879066467, -0.3248586058616638, -0.14894144237041473,
            -0.1921195536851883, 0.026037776842713356, 0.3840462863445282,
            0.28884223103523254, -0.1877298206090927, -0.13886240124702454,
            -0.2414451241493225, -0.15725447237491608, 0.1621236950159073,
            -0.07398749887943268, 0.07228217273950577, -0.05302631855010986,
            -0.22617530822753906, 0.05697303265333176, 0.1859218329191208,
            0.34997501969337463, 0.12314224988222122, 0.2734149098396301,
            -0.40457338094711304, -0.2614886164665222, 0.10156138986349106,
            -0.27353131771087646, -0.3251231014728546, -0.33833757042884827,
            0.04390003904700279, 0.20427367091178894, 0.36989885568618774,
            0.16495110094547272, -0.05743785202503204, 0.4107750654220581,
            0.27433040738105774, -0.25200212001800537, -0.25759363174438477,
            0.12199699878692627, -0.28480467200279236, -0.17048251628875732,
            0.21216149628162384, 0.10799580812454224, -0.1903831958770752,
            0.048463188111782074, 0.1132013201713562, 0.23234528303146362,
            -0.35448455810546875, -0.3410913646221161, -0.12351939082145691,
            0.0822083130478859, 0.4735267162322998, 1.133098840713501,
            -0.2640873193740845, 0.0638597384095192, -0.18079230189323425,
            -1.1516668796539307, -0.8245902061462402, -0.18241626024246216,
            -0.3978591859340668, 0.04288812726736069, -0.34380069375038147,
            -1.0340272188186646, -0.7021775841712952, -0.8130536079406738,
            -0.5555658340454102, -0.36479124426841736, -0.3358498811721802,
            -0.22831721603870392, 0.12405149638652802, -0.051210638135671616,
            -0.06188445910811424, -0.046338118612766266, 0.28787270188331604,
            -0.04459236189723015, 0.06023364141583443, -0.08562648296356201,
            0.30782684683799744, 0.03820400685071945, 0.4425552785396576,
            0.30801084637641907, -0.43207812309265137, -0.45987918972969055,
            0.05294693633913994, -0.2293044477701187, 0.5816072821617126,
            0.4362894296646118, -0.07316862046718597, 0.11696457117795944,
            -0.19335320591926575, -0.7522464394569397, -0.49539491534233093,
            -0.9194018840789795, -1.0624759197235107, -0.6858446002006531,
            -0.43836867809295654, -0.13995471596717834, -0.30234798789024353,
            0.0001329138467554003, 0.18531207740306854, -0.2727466821670532,
            -0.09036865085363388, -0.4797115623950958, -0.2064618468284607,
            0.2772901952266693, 0.5136670470237732, 0.12286604940891266,
            -0.04771053045988083, 0.07173307985067368, 0.20802150666713715,
            -0.14124128222465515, 0.0022284677252173424, -0.18094013631343842,
            0.3371052145957947, -0.4152097702026367, 0.12310188263654709,
            0.17404063045978546, 0.36195215582847595, -0.2100054770708084,
            -0.2663201689720154, -1.0592588186264038, -0.8919134736061096,
            -0.8077577948570251, -0.34174078702926636, -0.0359586663544178,
            -0.15067437291145325, -0.007493854034692049, -0.0613492988049984,
            -0.07291214168071747, -0.34360256791114807, -0.4331681430339813,
            -0.38846421241760254, -0.3542788624763489, -0.06469770520925522,
            -0.24664618074893951, -0.4097239375114441, 0.022801144048571587,
            0.033112552016973495, 0.3577556908130646, 0.0745006874203682,
            -0.5116583108901978, 0.40511229634284973, -0.29187384247779846,
            -0.3144207000732422, -0.23940344154834747, 0.06558388471603394,
            -0.4335843026638031, -0.8881242275238037, -0.44205978512763977,
            -0.5991230607032776, -0.3034597337245941, 0.0243711918592453,
            0.18185757100582123, 0.0919855609536171, -0.0334654301404953,
            0.15960490703582764, -0.184138223528862, -0.05372583493590355,
            -0.673273503780365, -0.8622119426727295, -0.8043770790100098,
            -0.9423878788948059, -0.26846182346343994, -0.36508458852767944,
            -0.3041010797023773, -0.24614201486110687, 0.39386147260665894,
            0.6965959668159485, 0.5226391553878784, -0.06494579464197159,
            -0.26684242486953735, -0.5876707434654236, -0.5726640224456787,
            -0.20959237217903137, -0.4826679229736328, -0.727017879486084,
            -0.5057501196861267, -0.0801624283194542, -0.16264550387859344,
            0.00017371802823618054, 0.020119359716773033, 0.07117066532373428,
            0.05280130356550217, -0.020255735144019127, 0.018248315900564194,
            0.008051923476159573, -0.19407927989959717, -0.7901149392127991,
            -0.9165482521057129, -1.008759617805481, -0.5261479020118713,
            -0.4092586636543274, -0.5131742358207703, -0.6454616785049438,
            -0.020249681547284126, -0.7627511620521545, -0.7038304209709167,
            -0.7070273756980896, -0.3385825455188751, -0.6108459830284119,
            -0.9404670000076294, -0.348268985748291, -0.0536632239818573,
            -0.5140584111213684, -0.04639459401369095, 0.28205835819244385,
            -0.008614858612418175, 0.06552456319332123, 0.15068252384662628,
            -0.18582774698734283, 0.06174430623650551, 0.18190906941890717,
            0.1351257860660553, -0.14494487643241882, -0.19441965222358704,
            -0.15259003639221191, -0.20778584480285645, -0.3087385594844818,
            -0.31156688928604126, 0.07525542378425598, -0.19455809891223907,
            -0.9411530494689941, -0.48516568541526794, -0.5389821529388428,
            -0.6327197551727295, -0.36262843012809753, 0.20127078890800476,
            0.04557893052697182, -0.7808110117912292, -0.4657011032104492,
            -0.12006879597902298, 0.03013560175895691, 0.2848975956439972,
            -0.07300406694412231, 0.09977088123559952, 0.1403360664844513,
            -0.06025554984807968, 0.06632234156131744, 0.026362311094999313,
            0.11367682367563248, -0.03436822071671486, 0.08180948346853256,
            0.07406850904226303, 0.2694453001022339, 0.4588761329650879,
            0.43216416239738464, -0.23076677322387695, 0.03843441978096962,
            -0.3027663230895996, -0.5053130388259888, -0.13734331727027893,
            -0.34392741322517395, -0.682659924030304, -0.9651378989219666,
            -0.19069118797779083, -0.05398036539554596, -0.5967428088188171,
            -0.6204879283905029, -0.5733487010002136, -0.00678207678720355,
            0.3870399594306946, -0.13245277106761932, 0.1636888086795807,
            -0.1514458954334259, -0.005438998341560364, 0.02842068299651146,
            0.013462454080581665, 0.20098088681697845, 0.1545364111661911,
            -0.06479274481534958, 0.39558690786361694, 0.47650665044784546,
            0.6354292631149292, 0.730011522769928, 0.41730308532714844,
            -0.6622292995452881, -0.2174334079027176, -0.17288389801979065,
            -0.4917328655719757, -0.19254592061042786, -0.45046988129615784,
            -0.5498453974723816, -0.3707145154476166, 0.12988345324993134,
            0.18481406569480896, -0.5542281270027161, -0.173219233751297,
            0.14962424337863922, 0.4971884787082672, 0.34538447856903076,
            0.29509517550468445, -0.03297828882932663, -0.08542350679636002,
            -0.018580066040158272, 0.016683310270309448, 0.18639974296092987,
            -0.13065515458583832, -0.16521912813186646, 0.23720310628414154,
            0.3184640109539032, 0.3361946642398834, 0.8608734011650085,
            0.7945748567581177, 0.2053288370370865, 0.41196027398109436,
            0.49147287011146545, 1.0617629289627075, 0.4177968204021454,
            0.5734309554100037, 0.6197001338005066, 0.1110098585486412,
            0.3935734033584595, 0.8238867521286011, 0.6686153411865234,
            0.21128535270690918, 0.46498340368270874, 0.33552661538124084,
            0.13340170681476593, 0.31255924701690674, -0.01374359242618084,
            -0.07427310943603516, -0.13214793801307678, 0.16564448177814484,
            -0.08189252018928528, 0.118600033223629, 0.05526304617524147,
            0.13505767285823822, 0.0942477434873581, 0.40135616064071655,
            0.4861725866794586, 0.2459062933921814, 0.7095073461532593,
            0.5481975078582764, 0.20476830005645752, 0.3775387704372406,
            0.6191681027412415, 0.45326483249664307, 0.713226854801178,
            0.47490522265434265, 0.7551858425140381, 0.8185550570487976,
            0.39385470747947693, 0.34365594387054443, -0.032742854207754135,
            0.22876183688640594, 0.029565738514065742, -0.015458873473107815,
            -0.17299258708953857, -0.08750931173563004, -0.029002882540225983,
            0.012330680154263973, 0.1473960429430008, 0.02287888713181019,
            0.08537302166223526, 0.16758941113948822, -0.13395696878433228,
            0.041144803166389465, 0.04721398651599884, 0.281271755695343,
            0.27420109510421753, 0.19524918496608734, -0.08756890147924423,
            0.12340308725833893, 0.19507525861263275, 0.030980700626969337,
            0.21832670271396637, 0.05341941490769386, -0.12835834920406342,
            0.13294757902622223, -0.12810243666172028, -0.11167579144239426,
            0.20990930497646332, 0.030968084931373596, -0.025449030101299286,
            -0.1148463785648346, -0.09914516657590866, 0.05263476446270943,
            0.08632144331932068
          ],
          [
            -0.13349242508411407, 0.173029825091362, -0.20518535375595093,
            -0.11317268759012222, -0.2079906314611435, -0.1770133525133133,
            -0.14981774985790253, -0.1262184977531433, 0.14968861639499664,
            -0.018729539588093758, -0.10658451914787292, -0.08623990416526794,
            0.0710640475153923, -0.047429561614990234, 0.1608196496963501,
            0.16699156165122986, 0.1319839209318161, 0.09653612971305847,
            -0.09391412883996964, -0.032497357577085495, -0.0830969288945198,
            0.1670459359884262, 0.23084944486618042, -0.02178994193673134,
            0.15225112438201904, -0.036217112094163895, 0.05325377732515335,
            -0.20050886273384094, -0.05424948409199715, 0.042296964675188065,
            0.03222830966114998, -0.148806631565094, -0.20780795812606812,
